nep4 3 Ba O Ti 
cutoff 8 4 178 26
n_max 4 4
basis_size 8 8
l_max 4 2 0
ANN 30 0
  1.3588044e-03
  1.1590148e+00
  1.3483850e-03
 -2.4040103e-02
  1.8137252e-03
 -4.5570072e-02
  6.9083832e-03
  9.5371252e-01
 -6.3768267e-03
  1.2929064e-03
 -2.8986137e-03
  2.0156692e-01
  2.2311595e-03
  3.2391269e-03
  1.5677075e-03
  8.2222902e-04
 -8.9149445e-04
 -6.9023683e-03
  3.0152567e-03
  4.4213535e-04
  5.7005469e-04
 -6.3210604e-04
 -6.8325980e-04
  8.7729614e-04
  1.0754254e-03
  2.3464467e-03
  1.9291491e-03
  4.8672524e-03
 -1.6885530e-03
  2.4935848e-04
  5.6192274e-03
 -7.9181377e-04
 -3.8104296e-05
  5.4231393e-03
  5.1241595e-04
 -2.4053315e-03
  3.7389529e-01
 -1.4805919e-03
 -1.8950898e-03
 -8.7814713e-03
  9.2493196e-04
  9.6012151e-04
 -1.4239929e-03
  2.6823292e-03
 -3.9524669e-03
 -3.6554335e-04
  2.8901035e-04
 -5.0432500e-03
  6.1051414e-04
  8.1608025e-04
  2.1880965e-03
 -1.8560438e-03
  7.1704219e-04
  4.2505558e-03
 -7.1797729e-04
 -2.0873691e-03
  3.6898020e-03
 -3.2263427e-04
  3.3734896e-04
  3.0655370e-05
 -7.4484924e-05
 -8.0699407e-02
  2.4070318e-03
 -1.9105111e-04
 -2.3748622e-04
 -3.1613477e-04
 -2.2141892e-03
 -1.2813385e-03
  9.1504166e-04
  1.5125723e-03
  9.9050940e-04
 -1.1848814e-03
  5.8212215e-03
 -3.1568510e-03
  1.0876352e-04
 -8.9837186e-04
 -6.1249686e-04
  1.8313058e-03
 -1.2803599e-03
 -2.7831257e-03
 -1.2844364e-04
  2.6153496e-03
 -1.5008462e-03
  6.9384379e-03
  9.0639829e-04
 -1.3882716e-03
 -3.2332209e-03
 -1.8310912e-03
 -2.8119117e-04
 -4.3875378e-05
  2.3604950e-03
 -5.3354882e-04
 -1.7909968e-04
  1.7310930e-03
  3.3764729e-05
  4.0220320e-03
 -6.4564508e-04
 -1.3024107e+00
 -7.5282424e-04
 -1.5573115e-03
  1.8178902e-03
 -3.6313193e-04
  9.5260085e-04
  3.4150735e-03
  2.7544212e-03
  1.9966678e-03
  3.4947635e-04
 -1.1336000e-03
 -6.5209642e-06
 -1.2214443e-03
  6.4027793e-04
 -7.9357449e-04
 -6.5522771e-03
 -1.7189679e-03
 -1.1474185e-03
 -1.1318148e-03
  1.9681703e-03
  3.3701649e-03
 -3.3236989e-03
 -1.7233067e-03
 -8.7933237e-04
 -4.9881656e-03
  4.3766159e-03
 -1.0728706e-01
  2.1172622e-03
  4.4939658e-04
 -1.5157439e-02
  1.0787039e-02
  6.0530117e-04
  2.4398854e-03
  6.0952635e-04
  1.4998888e-03
  2.1678733e-03
  7.0458860e-05
  1.6296849e-03
  8.8821119e-04
 -1.2810871e-03
  6.2243342e-02
  1.4402625e-03
 -4.2179128e-04
 -1.8216091e-03
  3.5751848e-03
  8.3320402e-03
 -2.0154428e-03
 -1.9392617e-03
 -6.4298320e-01
 -3.8634257e-03
  7.4100675e-04
 -1.3922955e-02
  9.1551310e-01
 -1.1103905e-03
  1.0725179e-04
  1.5718238e-03
  1.3137468e-04
 -7.0867165e-05
 -8.6063199e-04
  1.0150715e-03
  1.0664386e-03
 -6.0338449e-01
 -4.0617133e-03
  1.9737596e-03
  2.2180632e-01
 -2.9918519e-03
 -2.9506623e-03
 -1.4881690e-03
 -8.7454426e-04
  1.4572669e-03
  1.3957855e-03
 -1.7878764e-03
 -1.1942699e-03
 -6.1688176e-03
 -3.7008519e-03
 -4.4556567e-04
  1.0781884e-03
 -4.9425964e-04
  1.3216701e-03
  1.7492534e-03
 -3.5536420e-04
 -7.4016111e-04
 -1.3034031e-03
 -1.2634526e-01
  7.4600124e-01
 -2.8053755e-01
 -7.8697942e-02
 -4.8152655e-01
  1.8462609e-01
 -8.7215535e-02
  4.8077717e-01
 -2.1539061e-01
  3.2697552e-01
  3.9776303e-03
 -2.8783989e-03
  2.0298475e-01
 -1.5790222e-03
 -2.6039362e-03
  6.7781955e-03
 -1.6311996e-03
  5.8099836e-01
 -2.9608274e-03
 -3.4107533e-04
 -2.0215121e-01
  4.8583154e-02
  5.4402572e-01
 -7.0991263e-02
  1.1647792e-03
 -3.5210373e-04
 -5.7377852e-04
 -2.2329578e-04
 -4.1098340e-04
 -2.3674015e-03
  1.9246172e-04
  2.9018868e-02
  4.8720348e-03
 -1.3083813e-02
  2.7194615e-03
  5.4282956e-03
 -1.8552524e-03
 -1.6274594e-03
  8.8522863e-04
 -2.0421359e-03
  3.0783431e-03
 -6.3507799e-03
  4.2136330e-03
 -4.8978247e-05
  1.9916531e-03
 -5.1884144e-04
 -3.1579995e-05
 -3.2679216e-04
  4.2689120e-04
  1.2512199e-03
 -2.7668772e-03
 -8.4098981e-04
  4.4448610e-04
 -2.4834310e-03
  7.4452796e-04
  1.5629834e-03
  2.0631279e-03
  9.2807499e-04
  3.1123118e-04
 -5.8762485e-04
  3.0770567e-01
 -6.2750478e-04
 -5.8951820e-05
  1.4102410e-03
 -6.2555019e-03
 -2.2909295e-05
  2.3041558e-03
 -1.4588109e-03
 -5.5122683e-03
  3.2530764e-01
  3.5785504e-03
  4.1061945e-04
 -1.0456271e-03
 -2.5500788e-04
 -1.5766267e-03
 -4.9716800e-06
 -1.4348614e-03
 -1.1239278e-04
 -2.8474404e-05
 -4.5295121e-05
  2.9830637e-03
  8.5686671e-04
 -1.2348848e-03
  1.2418164e-03
  1.5534759e-03
  2.2900875e-03
 -5.1702019e-03
 -4.1880787e-05
  2.2041586e-03
 -1.4459623e-03
 -3.1642017e-03
  8.8476011e-04
  2.2321409e-03
 -3.5650386e-03
 -2.3042454e-04
  3.4677614e-03
  1.8662190e-03
  1.7456954e-03
 -2.3805004e-04
  1.8087336e-03
 -6.8737933e-04
 -2.3269770e-03
 -4.3605952e-04
 -5.0256547e-04
  5.1912159e-04
  8.8873057e-04
  1.1267398e-03
  7.5830743e-03
 -1.8034390e-03
 -1.3225894e-02
 -1.1068799e-03
  1.1578904e-03
 -3.3576996e-04
 -3.4803341e-04
  6.1007416e-01
  9.2265679e-04
 -1.3994622e-03
  7.6278680e-05
  5.9986633e-04
  1.6130520e-03
 -1.0859384e-03
  4.7633070e-02
  4.7779861e-03
 -2.2707325e-01
 -9.7504875e-04
  2.1538925e-03
  1.0977852e-03
  5.8457586e-03
  8.4437337e-04
 -1.3137846e-04
 -1.3136306e-03
 -5.8585700e-02
  4.7284335e-02
 -1.1823276e-03
 -8.9745295e-01
 -3.1035601e-03
  1.0128928e-03
  3.8814941e-01
 -3.2685630e-03
  7.8913494e-04
  1.7808883e-04
  2.4084719e-03
  3.1478717e-03
 -5.5440236e-03
 -5.5426899e-03
  3.1071880e-03
 -8.4051657e-03
 -3.5075252e-03
 -2.6177540e-03
  4.2608220e-04
  1.7463521e-03
 -8.5973811e-01
 -1.0283064e-02
  1.7775762e-03
  1.2626608e-03
 -3.1421159e-03
  7.6159291e-02
 -1.4095482e-03
 -2.1531316e-03
  5.1307910e-05
  1.5149520e-03
  7.6285614e-05
 -8.9209643e-04
  9.8560890e-04
 -1.3265868e-03
 -8.8996906e-04
  1.7534250e-04
 -4.0590162e-03
 -1.4216329e-04
 -2.1853130e-03
 -1.1209236e-03
 -1.0128086e-04
 -1.3709885e-04
  5.0063576e-03
  1.7828633e-03
  1.8991733e-03
 -4.4912267e-03
 -2.7545923e-04
  7.9975172e-04
  2.6748511e-03
 -3.1497603e-04
  8.3611300e-04
 -9.6815237e-04
  1.2089165e-03
 -1.0598443e-03
  1.8115961e-03
 -1.0647775e-03
  2.2588009e-03
  5.4515892e-04
  6.2896994e-05
  2.6700320e-03
  6.7672040e-04
  3.1268195e-04
  1.4768071e-04
  1.2988653e-03
 -3.1559623e-04
  1.9268994e-03
  3.8662250e-04
  5.9815106e-04
  1.5650762e-03
 -6.5546529e-04
  8.0281614e-05
 -2.5201251e-03
  5.3955667e-04
  4.7176515e-04
  3.6468107e-04
 -8.9728524e-04
 -4.7941931e-02
 -1.6289076e-03
  3.3569874e-04
  4.4038585e-01
 -1.2915610e-01
  2.8064749e-01
 -5.6604856e-01
 -1.1322995e-01
  1.3086854e-01
 -1.2276071e+00
  7.0948780e-01
  3.9618927e-01
  1.4177738e-01
  4.6528894e-03
 -5.0508130e-01
  4.9894387e-01
  3.2107410e-04
 -8.0038491e-04
  3.2525390e-01
 -8.6268418e-02
  6.1162871e-01
 -1.4484890e-01
 -1.4534214e-04
 -4.6857041e-01
  3.3369198e-01
  7.9744041e-01
 -4.9059546e-01
  1.6243746e-04
 -3.5848818e-04
 -9.9475617e-03
  2.6076453e-04
  4.3274518e-03
  2.8192257e-03
 -6.8116921e-04
  1.1734412e-03
  1.2848325e-01
 -8.7924523e-04
  1.1204081e-04
 -4.0924032e-03
 -4.6140337e-04
  5.2515264e-03
  1.5682093e-03
  1.2008849e-03
 -1.0788123e-03
 -4.3470855e-04
 -9.7354414e-04
  2.5674487e-03
 -1.1286770e-03
 -2.6385034e-05
 -1.4614202e-03
 -1.6592104e-03
 -1.8143241e-03
 -1.7789926e-03
 -2.9457880e-03
  2.9162648e-03
 -3.0270435e-03
 -2.0370563e-03
 -6.3014898e-04
 -1.3344515e-04
  8.6243526e-04
  7.6164899e-05
 -6.0713053e-04
  3.6462343e-03
  1.3712467e-02
 -2.9257920e-01
  5.2184814e-01
  1.1722902e-01
 -6.8283844e-01
 -2.1171688e-01
  1.3861616e-01
 -7.1430486e-01
 -3.3211070e-01
 -2.6907623e-01
 -5.5962009e-03
  1.1307502e-01
 -5.1306260e-01
  1.7346424e-03
  2.8199769e-04
 -1.7145231e-01
  1.0540028e-01
 -2.1099786e-01
  2.2174311e-01
 -2.1006800e-03
  2.8562903e-01
 -2.1504283e-01
 -5.5708814e-01
  2.7730536e-01
 -3.2723034e-04
  1.7722707e-03
  4.9901649e-04
  1.1913703e-03
 -5.5179477e-04
 -5.8750104e-04
  1.7135808e-01
 -8.1712112e-04
  3.5850814e-04
  1.3843862e-03
 -4.5048748e-03
 -1.4633165e-03
  1.8419045e-03
 -1.5488057e-03
 -5.2707703e-03
 -2.9335099e-03
 -2.9345406e-03
  1.1164871e-03
 -1.0738241e-03
 -6.0345925e-04
  4.4903110e-04
 -1.0892737e-03
  2.6556456e-03
  2.8857836e-04
  3.2927698e-04
 -1.0074935e+00
  6.4824017e-05
 -2.5458873e-04
 -3.1245949e-03
 -2.0967640e-01
 -2.9557449e-04
 -9.3850955e-05
 -7.5016904e-04
  3.3094082e-04
 -1.5597056e-03
  2.0087555e-03
 -4.3915026e-04
  1.4906466e-03
 -2.3003479e-03
 -2.4137288e-04
 -1.0343714e-03
  1.2932298e-03
 -4.5185755e-03
 -1.6600986e-03
  5.7309184e-02
  3.4768451e-02
  4.8148067e-04
  3.6915102e-05
 -2.0801257e-03
  1.1321752e-03
 -2.0495614e-03
 -1.2347331e-02
 -1.6572226e-03
  3.4454416e-03
  1.3499844e-03
  7.4601237e-05
 -3.1748747e-03
  1.2927904e-03
  3.4832149e-03
  1.3592708e-03
 -1.2746024e-03
  1.2989914e-03
 -2.9106908e-03
 -3.8468090e-03
  5.3881191e-05
  1.4292614e-03
 -2.1976954e-03
 -4.6781665e-03
 -3.0174843e-04
  8.9834677e-04
  2.5187624e-03
  2.1980943e-03
 -1.8709408e-03
  1.4131094e-03
  1.5925572e-04
  8.8084734e-04
 -3.6499647e-03
 -3.0528626e-04
  1.9479685e-03
  2.0917004e-03
 -3.6144850e-03
  7.6632726e-04
 -9.4282301e-04
 -2.0797130e-02
 -3.0896789e-04
 -1.0781571e-04
  1.0578609e-03
 -1.5992897e-03
  1.2163097e-03
 -1.7851248e-03
  6.9812844e-03
  1.3733126e-03
  1.0351946e-03
 -8.9023216e-04
 -2.7539330e-03
 -4.4730250e-03
 -2.1315562e-03
  6.3652039e-04
 -1.5609126e-04
  8.6271198e-04
 -6.7371726e-03
  9.3297625e-04
  5.0892741e-06
  6.2918882e-03
 -3.5251398e-04
 -1.9839802e-03
 -3.9598567e-04
  4.2917719e-04
  4.7748993e-04
 -2.2167030e-03
  3.7402776e-04
  1.3075424e-03
  4.2771699e-04
  4.8426184e-04
  5.4270559e-04
 -6.5603404e-04
  3.7398648e-03
 -2.6363416e-03
 -1.5370173e-03
 -1.8408058e-04
 -1.3676927e-04
  7.2336878e-04
  8.8546780e-04
 -2.4646225e-03
  7.8793516e-04
  7.8675017e-04
  3.1976550e-04
  5.6074990e-04
  4.6214453e-04
 -3.5511244e-03
 -1.0499138e-01
 -1.3823174e-03
  1.3950102e-03
  1.0287055e-01
 -2.2556435e-03
  2.7648552e-04
 -1.0323426e-03
 -1.9021778e-03
 -2.9959113e-03
  2.2199147e-04
 -1.3130343e-03
  3.8535609e-03
 -1.2223168e-03
  1.2138789e-03
 -6.7252241e-04
 -4.3770126e-03
 -1.0132306e-02
  1.4958767e-03
  3.0638461e-03
 -8.3375006e-04
 -1.5972834e-03
 -8.8470674e-04
  4.5509998e-05
  3.6773215e-06
 -3.8982595e-03
 -1.4904026e-03
 -5.6421751e-01
 -8.7890708e-01
 -1.2476705e+00
  1.6724020e+00
 -4.0027687e-01
 -1.4681926e-01
  2.0717900e-02
 -1.8894789e-01
 -4.7195353e-02
 -5.9322566e-02
  1.3513882e-03
  5.0296560e-02
 -5.9756738e-01
  4.0992200e-01
 -7.8877079e-04
 -1.5977367e-03
  1.6001226e-02
 -6.5033549e-01
  3.9352581e-02
  3.3615745e-04
  1.7310399e-01
 -9.7795911e-03
 -4.2381147e-01
  2.6786730e-01
 -4.7308687e-04
 -1.5425593e-04
  5.8121805e-04
 -8.3909254e-04
 -2.7720274e-03
 -2.6877900e-03
  2.4108782e-03
  1.7963951e-03
 -1.5179954e-04
 -4.3314649e-03
 -2.1310067e-03
 -6.0276885e-04
  4.7764275e-04
  2.9524700e-03
  4.6551574e-04
 -3.1409369e-04
 -1.4100824e-03
 -9.7969132e-05
  5.8624102e-03
 -2.3501492e-03
  6.5484858e-04
 -1.2922252e-03
  2.0393343e-03
 -9.6227863e-04
 -3.0354867e-03
  6.3823070e-04
  1.8290596e-03
  5.6317155e-03
  2.4243144e-03
 -5.8882800e-04
 -3.6705620e-04
  3.4050867e-03
  1.2892185e-03
 -1.7102797e-03
  1.3781723e-03
  1.1453966e-03
  1.1044508e+00
 -1.2788630e+00
  3.3522077e+00
 -2.7777896e+00
  1.1972674e+00
  8.5073657e-02
 -1.6252156e+00
  4.2741705e-02
  1.1558853e-03
  3.3116147e-01
 -5.8664095e-06
 -1.7986019e-01
  1.6962257e-03
 -1.7827883e-03
 -1.0257242e-03
  3.6185242e-03
 -6.2351304e-01
  3.2163516e-01
 -4.9596369e-01
  2.9788885e-04
 -4.1448072e-02
  2.9421518e-02
  4.7824040e-04
 -3.8884222e-03
 -2.4964202e-03
 -1.9804358e-03
  4.9894053e-04
  2.6932184e-03
 -2.2391414e-03
  5.9551974e-05
 -2.1431688e-03
  4.1277492e-03
  1.8708858e-03
 -4.7646048e-03
  2.0032264e-03
 -9.0487432e-05
 -1.5999796e-04
  1.6640457e-03
  1.2530042e-03
 -5.8676186e-03
  1.7007313e-03
  1.4645861e-03
 -4.3798559e-03
  2.6525958e-03
  1.1944080e-03
 -4.1945351e-04
  4.7605557e-04
  8.3508634e-04
  5.2717590e-04
  2.3061263e-03
 -1.9702765e-04
 -1.3494042e-04
  1.4444838e-03
 -3.1402858e-04
 -2.4793660e-03
  9.3685252e-05
  4.7405995e-04
  2.0972677e-03
  4.4581370e-04
  1.1647122e-04
  4.1435831e-03
  1.3921339e-04
  1.1225318e-03
  3.6349690e-03
  1.3053555e-04
 -3.0931043e-03
 -4.9445342e-04
  4.7920328e-03
  5.4857251e-04
 -4.6444754e-03
  5.4186204e-04
 -3.1648920e-04
 -4.7346132e-04
  6.2747389e-01
 -8.6884230e-04
  7.8258365e-03
 -4.6347883e-03
 -7.9731178e-03
  2.9653455e-03
 -1.3514442e-03
 -6.5321982e-04
  2.7996500e-04
  3.8494408e-01
  6.8435050e-04
 -1.9399001e-04
  1.7638281e-03
  1.9226972e-03
 -4.4914929e-04
 -5.6134170e-04
  6.1243982e-04
 -1.8073560e-04
  5.2660971e-04
  1.9346650e-03
 -1.3608602e-03
  8.9857967e-05
  4.1193906e-03
 -1.4064430e-03
  2.7770014e-04
 -1.7678387e-04
 -1.2041070e-04
  2.6502987e-04
 -9.7706425e-04
 -1.1154362e-03
 -2.5746804e-03
  3.4618909e-03
  8.4909966e-04
 -2.0038520e-03
 -3.6260065e-01
 -4.1962665e-04
 -1.3229514e-03
 -3.3508618e-03
  8.7683031e-04
  6.4516324e-03
 -8.0450403e-04
 -6.9173784e-03
 -6.3501424e-01
  8.5713365e-04
 -1.8598781e-04
 -9.6943701e-04
  3.4276496e-03
  3.7316254e-03
 -7.1892072e-04
  2.6867085e-04
 -1.3244617e-03
 -1.0752174e-03
  2.7434467e-04
 -8.3134096e-04
  1.3140950e-03
 -1.2854097e-03
  7.2595628e-04
 -1.6692549e-03
 -1.4154123e-03
  6.2348484e-04
 -1.1254444e-03
 -1.6603275e-03
 -2.1040936e-04
 -2.0646150e-04
 -8.4524229e-04
  8.2757825e-04
 -2.5879956e-05
 -2.8720649e-03
  4.1901571e-04
 -1.8975454e-03
  5.6686087e-05
 -4.2796019e-04
  1.9203852e-01
  2.9198339e-03
  3.4213804e-03
 -4.6579647e-04
  3.5311905e-04
  5.3107554e-01
 -7.7667549e-02
 -5.9542805e-01
  1.2672406e-02
 -2.2563086e+00
 -2.6993814e-01
  7.0571620e-03
  4.3234497e-01
 -1.6294678e-01
 -1.9242622e-01
 -9.0823015e-03
  1.2189922e-02
 -8.1958610e-01
  6.7723135e-04
 -4.4643339e-02
 -6.2845238e-02
 -2.0994004e-03
 -3.8055936e-01
  3.4922049e-03
  3.9515071e-04
  9.9440403e-02
 -2.0437592e-01
 -4.7806644e-01
 -1.2245139e+00
 -1.3309470e-03
 -1.7545264e-03
  3.1153750e-04
 -9.8398014e-04
 -3.3472187e-04
 -1.9941296e-04
  2.8245905e-04
  6.3760602e-04
 -2.7735575e-04
  6.1228881e-03
 -1.5350806e-03
 -6.6928944e-04
  3.3924171e-05
 -1.4416154e-03
 -1.1398168e-03
 -2.3906112e-03
  4.5896042e-03
  1.0259785e-03
  3.1456009e-03
  5.6873146e-03
 -3.5971594e-03
  2.6424164e-03
  4.5021428e-04
  3.3057122e-03
 -2.9138409e-04
  9.8243332e-04
  4.9267281e-03
  5.4769400e-03
 -7.1271684e-04
 -8.8277793e-06
 -1.3678867e-03
 -1.5378839e-03
 -2.6462597e-03
 -2.9899555e-03
 -6.6627922e-07
  6.3300802e-04
  1.1322601e+00
  6.9831699e-01
  4.3267007e-03
  1.6092272e-03
  9.6396381e-01
  7.2345048e-02
  6.7100811e-01
  5.5441517e-01
  1.0708334e-04
  4.9023920e-01
 -3.2291654e-02
 -1.3149590e+00
  2.0110214e-03
 -2.0459686e-01
  1.8783998e-03
  1.5700886e-01
 -1.5792062e-03
 -7.2078331e-04
 -1.8533139e+00
  2.1571323e-04
 -6.0216775e-03
  5.2315044e-01
 -6.2677522e-05
 -1.1282529e+00
  1.3235638e+00
 -3.1372907e-03
 -3.7732169e-01
 -5.6291861e-04
  9.3485558e-01
 -1.3816539e-04
 -5.8504629e-01
 -8.2226259e-01
  2.4879393e-03
 -9.0081170e-03
  1.5676129e+00
 -1.4934560e-03
  1.2898023e+00
  6.1404592e-01
  7.8827015e-04
  2.6384115e-01
  7.8017199e-01
 -1.1366142e+00
 -2.9404846e-04
  2.1148269e+00
 -1.0394894e-05
 -1.7101376e+00
 -1.5953439e-01
  6.4810425e-02
 -2.7179627e+00
 -4.9723248e-04
  1.5235703e-03
 -1.4102098e+00
  1.1585092e-03
  1.4953167e+00
  9.7590548e-01
  7.0218742e-03
  3.6855924e-01
  7.1219038e-05
 -1.5884118e+00
 -2.1829930e-01
  3.5674900e-03
 -2.3056772e-01
 -8.5598193e-03
 -3.6092501e-03
  3.7017404e-03
  4.6893945e-03
  1.5515334e-04
 -9.3554158e-04
  2.2844016e-03
 -1.2964793e-04
  5.4697494e-04
  5.3732930e-04
 -2.1570170e-04
 -1.0108657e-03
 -2.7543430e-03
 -5.6120288e-04
 -2.4188512e-03
 -2.6494372e-03
  2.6636699e-04
 -1.4871247e-03
 -4.2809956e-04
  5.0078277e-03
  1.7643085e-03
  1.8977917e-03
 -2.9365809e-04
  4.7054398e-04
  8.1544225e-05
  3.8495688e-03
  1.8416017e-01
 -1.3908612e-03
  1.0559335e-03
  6.1325036e-04
  9.5968723e-04
 -3.2006381e-03
 -1.9610801e-03
  1.3644112e-03
  1.1400316e-03
 -1.8812674e-04
 -4.8333930e-04
 -3.5625426e-03
 -3.1223311e-03
 -9.1602711e-04
 -8.2299358e-04
  1.8245021e-04
 -2.0298008e-03
 -2.9745651e-04
 -2.2959381e-03
 -3.3560145e-01
 -1.3885897e-03
 -2.3956469e-03
  1.8053737e-03
 -7.8870862e-04
 -2.6061782e-03
 -1.3116455e-04
 -1.2951304e-03
 -4.4928931e-04
  1.4315769e-03
  1.7310984e-01
 -9.3073328e-04
  1.8349616e-03
 -3.5456340e+00
 -1.0123812e+00
  5.7333565e-01
  1.2038606e-01
 -7.0707881e-01
  1.2748306e+00
  5.6160599e-01
  1.6394835e+00
 -1.1503273e+00
 -7.1114123e-01
  2.4291196e-06
 -3.3162858e-02
  2.3101373e+00
 -8.6176768e-02
 -6.3674879e-01
  4.6731718e-03
 -5.5761391e-01
  1.5641930e+00
 -1.2435610e+00
 -9.1546053e-01
  1.9793129e-01
 -4.5491174e-01
 -3.8563982e-01
 -2.2447389e-01
 -1.3551010e-03
  1.8272967e-03
 -2.6841133e-03
  6.2595546e-01
  6.4559412e-01
 -3.5571951e-02
 -6.0615985e-04
 -1.3530320e-01
  9.2119927e-04
  3.6041982e-02
 -7.1353376e-01
 -2.0250862e-03
  3.4988325e-04
 -1.7441642e-03
  4.5136243e-04
 -1.1323465e-03
 -9.5599156e-04
  8.5686456e-04
 -1.3635696e+00
  9.3883526e-04
 -1.5351256e-04
  6.0283201e-04
 -2.7947589e-03
 -9.6000062e-04
 -6.0662383e-04
  1.2923391e-04
 -6.1767292e-04
  2.8743555e-03
  9.7362202e-04
  3.4695216e-03
 -3.5460333e-03
 -3.5439702e-03
  6.6114007e-04
 -2.9505475e-03
 -4.5070350e-03
 -1.4503403e-03
 -1.2989118e-03
 -1.2821624e-01
 -1.2091273e-03
  1.1491574e-01
 -5.4582310e-01
  8.7331049e-03
  1.7262531e-03
 -1.0048218e+00
 -3.3336210e-03
  3.8651520e-01
  6.7379819e-03
  5.7338420e-03
  1.3824329e-01
  9.8445790e-04
  2.1000989e-01
  3.1737576e-04
 -6.8544562e-04
  1.3968165e-03
 -1.1572559e-01
  2.8847714e-04
 -2.3052692e-01
  1.6804815e-03
 -3.9428443e-01
  4.9601955e-04
  8.3423695e-03
  2.0422686e-03
  3.7045666e-04
 -3.4782150e-01
 -2.0385541e-03
 -1.1924003e-03
  1.1544865e-04
  2.4483916e-05
 -2.7470973e-03
 -1.1358618e+00
  1.2186806e-02
  4.1263434e-03
  3.2719481e-04
 -1.8981689e-03
  4.5323973e-03
 -3.5903117e-01
 -3.2948698e-03
 -1.7026446e-03
  4.1779199e-01
 -1.6249954e-03
  4.5067733e-03
  6.6007677e-05
  1.0889691e-03
 -1.4327083e-02
  5.8647250e-03
  5.4897199e-04
  2.3689010e-04
 -2.8007473e-03
  4.9738851e-03
  1.4478635e-03
 -4.4758539e-03
  1.5991105e-03
  5.6206301e-04
 -3.9348425e-04
 -2.6778066e-06
  1.4700247e-03
  5.9723359e-04
 -7.2149606e-04
 -1.2649035e-03
  5.3407773e-03
 -1.9720962e-02
  1.4364026e-03
  2.5456762e-03
  2.9344139e-01
  5.8320875e-04
  3.3367413e-01
  7.6646116e-03
 -1.3603563e-03
 -6.8585739e-02
  6.5178385e-05
  7.0611094e-03
  4.1250424e-03
  2.9496315e-03
  2.5294358e-02
 -6.4541009e-04
  1.1273351e-02
 -1.7882087e-03
  3.8311980e-03
  4.4090560e-04
 -3.0581690e-03
  3.5974637e-03
  1.0490242e-03
 -6.7383214e-04
  2.5672176e-01
  4.7428878e-03
  2.1910619e-03
  2.2053257e-01
  1.0496628e+00
  2.8477802e+00
  3.0100441e+00
  5.0424194e-01
  2.6392195e-01
  1.2413223e-04
  5.4067647e-01
  3.9894856e-03
 -1.9318137e-01
  2.2619754e-01
  1.3751498e-03
  7.0503943e-02
 -1.2941589e-02
 -3.4484167e-02
  5.5742818e-01
 -8.3435327e-03
 -1.5529145e-01
 -2.8342088e-03
  8.8778918e-04
  1.4245702e-03
  1.3083999e-01
  1.4765966e+00
  2.3140159e+00
 -6.7107897e-04
 -2.6649572e-03
  1.7836366e-05
  1.3731866e+00
 -3.9988817e-03
  1.7521032e-03
  2.2198377e+00
 -1.2755775e-03
  3.5406224e-04
  5.6276307e-04
  2.8297850e-03
  1.0717376e-03
 -4.4421637e-03
  2.2408683e-03
 -5.1252617e-05
 -5.8686658e-04
 -1.6163851e-03
  5.0115120e-04
 -6.4430460e-05
 -7.3942688e-04
 -1.4268662e-03
  1.8701435e-03
  1.5608708e-03
 -2.8303065e-03
  1.0075744e-03
  6.2688128e-03
  3.9701546e-03
  1.7644330e-03
 -6.8443251e-04
  9.9338393e-04
  2.1038689e-04
  2.7217812e-04
 -1.7901139e-03
 -1.4636889e-01
 -2.5333770e-04
  3.9830883e-03
 -2.7665410e-03
 -2.2471179e-01
 -8.4219182e-01
 -5.3457659e-01
 -5.2010711e-02
  7.3497891e-01
  1.7813173e-01
 -1.2178593e-02
 -1.8087248e+00
 -8.1881374e-02
 -1.3567500e+00
 -7.2215855e-02
  5.1261008e-01
 -3.7251616e+00
 -8.2806450e-01
 -2.4993222e+00
  1.4903554e+00
  4.2843348e-01
  2.0657420e-01
 -1.5599842e-01
 -2.7192020e+00
  1.1676993e+00
 -7.3092073e-02
  7.6758462e-01
 -1.4829683e+00
 -5.0491154e-01
 -1.0914619e-03
 -5.9521526e-01
  2.2805095e-01
 -7.3244184e-01
  2.7989403e-03
 -2.7238941e-01
 -9.4536796e-02
 -1.4008282e-01
 -4.0403767e+00
  3.6612335e-03
 -2.0065125e-04
  7.3093927e-01
 -2.5172844e-03
  5.3446716e-01
 -3.3910145e-04
  1.8892870e-03
 -8.2683992e-01
  5.4400053e-04
  2.5387621e+00
 -4.6761666e-04
 -2.7662518e-03
  2.2309969e-01
  9.8435651e-04
  2.0678873e+00
  2.7846424e-03
  2.5825691e-03
  9.0255761e-01
  4.2768628e-03
  6.0476512e-02
  5.8244012e-04
  1.0751041e-03
  5.5008715e-01
 -2.6917227e-03
  1.0312480e+00
  6.8335347e-02
  1.1604041e-01
  3.2714450e-01
 -6.2490470e-04
  3.4200472e-01
 -6.4360205e-04
  1.0458766e-03
  8.9426684e-01
  1.2965368e-01
  2.1129146e-02
  3.9827731e-02
  4.1278116e-03
 -1.0402807e-02
 -9.8038872e-04
  8.1300868e-06
  1.0414343e-01
  5.5602891e-03
  1.5084199e-02
  5.1319124e-03
  2.0731157e-03
 -2.6587411e-04
 -3.5291857e-03
 -7.2110754e-01
 -1.3416829e-02
 -8.5445511e-04
 -1.5570770e-03
 -1.4534821e-03
  1.3721637e+00
  3.1084995e-04
  1.7774104e-04
  1.4991083e-04
 -2.2232928e-03
  2.0857614e-03
  7.5316138e-04
  1.6721300e-03
 -3.1563765e-03
 -2.0042972e-03
 -9.0011679e-02
  6.3885882e-04
 -5.6712604e-03
 -1.7203317e-03
 -5.0572390e-03
  1.4823920e-02
 -4.6911038e-04
  4.8021469e-04
  1.7530457e-03
 -2.9677862e-01
 -3.0691059e-05
 -1.7414044e-04
 -7.7500689e-04
 -2.7057593e-04
 -6.6391472e-04
 -1.5273282e-03
 -4.0196963e-03
 -1.1406071e-03
 -2.0442142e-03
 -1.1481739e-03
 -2.8666991e-01
  6.1649084e-04
 -2.5022891e-03
  1.5311213e-03
 -3.1153788e-03
  8.5433963e-04
  1.6323485e-03
 -3.8808740e-03
 -1.9792470e-03
  8.5391913e-04
  1.3387876e+00
  2.7371182e-03
  2.0513085e-03
  1.7555774e-03
 -4.1100048e-04
  2.2597714e-01
  4.8022508e-03
 -1.6082100e-03
  2.6530821e-03
 -3.3808444e-03
  2.2156950e-02
 -2.9891722e-03
  5.1881433e-03
 -4.4403781e-04
 -1.6915702e-03
 -3.6125723e-03
 -1.8017119e-04
  2.1449625e-03
  2.0690458e-03
  7.0666714e-04
  2.4603817e-01
 -5.6508539e-04
  1.9788428e-03
  2.1994768e-03
 -4.4376939e-03
  2.4165150e-03
  5.3843932e-04
  1.2586699e-03
 -5.1837915e-04
 -3.2448438e-03
  1.0198946e-04
 -4.0184748e-03
 -2.5699167e-03
  1.2985949e-03
  1.7419737e-03
 -7.5396412e-04
  1.8248366e-03
 -1.7813600e-03
  1.4360247e-05
  2.2879158e-05
  1.7763302e-03
 -1.1642920e-03
 -1.8039262e-06
  1.5061585e-03
  1.8181730e-03
 -1.8060601e-03
  7.3758111e-04
  6.7495077e-04
 -2.0664099e-03
  7.3689711e-04
  3.2025910e-04
 -3.3562314e-03
 -7.3657447e-04
  1.0746766e-04
 -1.8633427e-01
  1.3326230e-02
 -3.6089274e-01
 -6.0867641e-02
 -1.5200380e-02
  6.8338466e-04
 -8.4842861e-01
 -1.1477220e-03
 -1.2080687e+00
 -1.3171373e-03
 -1.9444288e-03
  8.7482506e-01
  1.7181455e-04
  8.0615766e-03
 -3.1094267e-03
 -7.7926279e-03
 -3.5034135e-02
 -1.9395896e-03
 -5.9368019e-03
  2.6226032e-04
 -1.3686664e-02
  4.8898229e-01
  7.9352810e-04
 -1.0847610e-02
 -4.3790736e-03
  1.0719449e-03
 -5.5511284e-01
  1.5552334e-03
  2.9655204e-03
  2.5320387e+00
 -8.5723925e-01
  2.6691296e+00
  1.3171007e-01
  2.0265989e+00
 -4.8847083e-02
 -1.3021567e-01
 -8.8644296e-01
  1.3890532e-01
 -1.1770689e-01
 -6.8423860e-03
 -7.5956881e-01
 -7.2302127e-01
 -2.1269904e-01
 -4.7025618e-01
  5.0929493e-01
 -1.2181906e-03
 -2.5323594e-01
  9.6275192e-04
 -3.2395405e-01
  1.9861350e-03
 -1.0554081e+00
  6.7134738e-01
 -1.0712668e+00
  1.9336680e-04
  3.1182021e-03
 -1.6528892e-03
 -2.1989658e-01
 -3.4131441e-01
 -1.7483482e+00
  3.0896890e+00
 -2.2458529e+00
  8.0164403e-01
  9.8850831e-02
  3.0302103e+00
 -4.5313692e-01
  1.6317654e+00
 -1.1494710e+00
 -8.7985724e-02
 -4.7451210e-01
  2.0057866e-01
 -1.7225420e-01
 -1.2807640e-01
 -2.2375526e-02
  1.9597961e+00
  1.2351136e+00
 -9.6966040e-01
 -1.8371869e+00
  3.9815393e-01
  7.6876795e-01
  3.0761379e-01
 -2.1503375e+00
 -1.4144377e+00
  1.4471599e-01
  1.4558016e-01
  3.3210360e-02
 -1.7602522e-03
 -1.7502311e+00
 -8.0239064e-01
 -1.6116691e+00
 -1.4300935e-02
  3.3736677e+00
 -3.9950674e-04
  1.4123410e+00
 -1.7429736e+00
  3.8829196e-04
  7.0589752e-04
  2.5700841e-03
 -4.1711563e-03
 -8.3162731e-01
 -3.0046963e-04
  2.0468319e-03
  5.8597904e-01
 -2.4865711e-05
 -1.0059196e+00
  7.1554654e-04
  3.7811493e-04
 -3.9048237e-04
  3.4963069e-04
 -3.5239691e-01
 -3.2832040e-03
  7.1289187e-04
 -8.7000996e-01
 -4.3660246e-02
 -4.0398974e-02
 -2.3949763e-03
  4.0475762e-04
  1.3702948e-01
 -1.7721032e-03
 -5.3180703e-03
  2.1483146e-03
  1.4949281e-03
 -1.1593092e-04
  4.3194354e-04
  1.8349870e-03
  1.8717448e-03
 -2.2559073e-03
 -3.2290081e-03
 -3.1553456e-03
  9.4748801e-04
  8.5565151e-04
 -8.0469716e-04
 -2.3931944e-01
  3.5716403e-01
  9.8213375e-02
  1.8442250e-03
  1.2275052e-03
  9.2772275e-02
 -1.0009937e-04
  1.3367544e-03
 -1.0659570e-03
  8.0421185e-03
  5.2444934e-04
 -1.6018825e-02
 -1.7902470e-03
  1.3174970e-03
 -3.3533361e-03
  6.6126660e-05
 -2.8632262e-03
 -2.8878363e-04
 -2.3958471e-03
 -2.7761250e-03
 -1.1133476e-04
  2.5468522e-03
 -9.2986046e-04
 -8.5827435e-04
  2.3043200e-03
 -1.0325165e-03
 -1.3657382e-03
 -1.2395368e-03
 -3.8775790e-04
 -4.2615877e-03
  1.6744217e-03
 -2.2076615e-03
 -4.0125068e-02
 -1.5115389e-04
 -6.5049797e-04
  2.0756444e-03
  2.6353539e-04
  7.6386973e-04
  5.6372053e-05
 -7.2559022e-05
 -4.4178107e-04
 -6.9367117e-03
 -8.9675179e-03
  6.8851031e-04
 -2.6672345e-04
  2.2358280e-03
  3.2809901e-03
  5.3507872e-03
 -6.1458147e-01
  2.4672253e-01
 -1.7958450e+00
  4.0370345e-01
 -2.5057673e-01
  7.8709304e-01
  1.1826210e-01
  1.3600323e+00
 -1.2389362e+00
  1.4408473e+00
  4.5576400e-01
  5.2843645e-02
  4.9670169e-01
  1.3662356e-01
  4.9483985e-02
  7.8633165e-01
  8.5193454e-04
  9.4151354e-01
 -7.6117539e-01
  1.0020522e+00
 -5.3654879e-01
  1.8836859e-01
 -2.0438167e-01
  6.3294694e-03
  2.6528588e-01
  1.3446517e-01
  3.6747863e-03
  3.8360265e-01
 -4.2103141e-04
  5.4521042e-01
 -2.8844383e-03
 -1.0403295e-03
 -2.5699742e-03
  3.5747132e-04
  8.5080646e-05
 -2.4949785e-03
  1.5164205e-03
  7.7408353e-05
 -7.5211475e-04
 -1.0121134e-03
  1.0168182e-05
  1.7890626e-03
 -1.5597637e-03
  1.4560572e-03
 -3.1234560e-04
  1.4605590e-03
  1.8488960e-03
  1.4413707e-04
 -6.8789035e-05
  1.5471092e-03
  3.9359942e-04
  6.7248460e-05
  6.9994561e-02
 -1.1669700e-03
  3.1474807e-05
 -1.4003165e-03
 -2.0136863e-03
 -1.9114868e-03
  1.3974110e-03
  2.6839864e-04
  4.1341265e-03
  6.5080953e-01
  9.9294788e-01
 -1.8941228e-01
  4.0100107e-01
  6.0307458e-03
  1.3989208e-03
 -4.6024933e-01
 -1.6506939e-03
 -4.3008635e-03
  3.9517526e-03
 -7.3467232e-03
 -1.0205333e+00
 -5.9098192e-03
  1.3305394e-03
 -2.7294236e-03
 -7.0359074e-03
 -2.8658863e-02
 -2.2037317e-04
  1.0925314e-03
 -1.7704163e-03
  1.2154664e-03
 -7.4870694e-01
 -3.1574487e-03
 -1.1893084e-03
  7.1409356e-04
 -2.5503675e-03
 -8.0412441e-01
  1.8907671e-03
 -6.3732697e-04
 -1.6562933e-03
 -1.0424052e+00
 -9.2303890e-01
  3.9694166e-01
 -2.2057217e-01
 -4.3990086e-03
  1.9369379e-04
  1.5142553e+00
 -3.1272407e+00
 -9.4086367e-01
 -1.6398283e-02
 -8.5648545e-04
 -9.9273823e-02
 -3.6988343e-04
 -2.0951462e+00
 -6.5438380e-04
  4.9261204e-03
 -5.8994178e-02
  6.2471707e-03
 -1.2858157e+00
  6.0852228e-05
 -2.1786727e-03
  9.7728610e-01
  1.5569998e-04
 -3.4833527e-01
 -4.1742829e-04
  4.2423829e-03
  3.4162191e-01
 -3.9618238e-04
 -7.6338035e-01
  7.0337802e-03
 -7.1747698e-02
 -2.8413713e-03
  4.4215816e-01
  2.5870092e+00
  1.2276161e-03
 -2.7423570e-04
  5.2571660e-01
 -2.4554869e-03
 -3.4039856e-03
  3.2956512e-03
  4.9352242e-05
  7.8548825e-01
 -5.5306545e-03
 -1.4281039e-03
  2.0882833e-01
 -6.5739895e-04
  2.1034291e-01
 -3.0793005e-03
  1.4838072e-03
  7.1797542e-05
  1.1144033e-02
  2.1968912e-03
  1.0967356e-02
  1.6103247e-03
  8.3565305e-04
  1.3178816e-03
  1.9205697e-02
  1.6422517e-03
 -2.4818066e-03
 -2.6164826e-03
 -7.8087063e-03
 -4.2293313e-01
 -1.0750844e+00
 -3.0882958e-01
 -3.3529617e-03
  1.6082132e-03
 -2.7916899e-01
 -1.9885274e-03
  2.2568186e-03
 -8.1116864e-03
 -5.0281826e-04
 -3.6273178e-01
  2.8877077e-03
 -1.2737014e-03
 -5.5063642e-03
 -5.6065968e-04
  3.5599869e-01
 -1.0231160e-01
 -5.6438119e-04
 -6.1966893e-03
  7.2565145e-04
 -1.2810239e-01
  1.1892970e-01
 -2.7739443e-03
 -2.0114321e-03
  4.0075558e-04
 -2.6243517e-01
 -1.6315858e-03
 -1.7362408e-03
  4.4373656e-03
  3.2099128e-01
  2.3866070e-02
 -2.0296992e-01
  1.1874552e+00
 -5.1081581e-03
 -1.8306331e-03
  1.2326630e+00
  2.8819859e-01
 -1.9444022e-01
 -2.7445740e-01
  2.4030313e-03
  4.5634410e-01
 -1.2798201e-04
 -3.9394072e-01
 -9.4288075e-04
  6.0684052e-03
  1.1460345e+00
  6.2643826e-01
  2.3083729e-03
 -7.0676976e-04
 -6.6835418e-02
 -4.9351614e-02
 -7.5336383e-04
 -1.1785667e-02
 -2.1367513e-03
  5.8715546e-01
 -2.4083856e-01
 -1.1403359e-03
 -1.4142815e-03
  2.7787086e-04
  7.9935558e-07
  4.3696465e-04
 -1.2543341e-04
 -3.6241852e-02
 -2.2071199e-03
 -7.1148598e-04
 -6.6395494e-04
 -1.2961843e-03
  1.7179520e-04
  3.6953704e-04
  3.0842845e-03
  1.5284198e-02
  6.5308183e-02
 -1.4762507e-03
  8.6074282e-04
  1.6956415e-03
  2.2239262e-02
 -2.4779032e-03
  2.4827456e-03
  2.3962986e-03
  1.9754169e-03
 -2.0655248e-06
  2.6341027e-04
  1.1871347e-03
  4.4680375e-01
 -1.0834525e-03
 -2.9266262e-04
 -3.3531662e-03
 -1.7044102e-04
 -1.0028019e-03
 -8.1188813e-02
 -2.5421767e+00
  2.8681716e-01
  3.0847108e-01
 -6.4364964e-01
 -7.1917637e-04
 -1.3733684e-01
  1.0826758e+00
  9.4033319e-01
 -5.4309607e-01
 -1.8330235e-03
  1.6716253e+00
  1.3040186e-01
  2.7452866e-02
  3.5236493e-02
  3.8281253e-01
  2.5404939e-01
  1.7692290e-01
  2.4324739e-01
  3.0727843e-03
 -1.2488877e-02
  1.3975985e+00
  9.7906746e-02
  1.1969958e-02
  4.6001710e-03
  6.4331316e-04
 -1.1543914e-01
  1.5855727e-03
 -4.5850439e-04
 -6.1974645e-04
 -1.2417255e-03
  1.7568357e-02
  2.4558461e+00
 -6.8165553e-01
  6.3909261e-05
  3.7721100e-03
  4.0677827e-02
  2.1731793e-03
  2.9839939e-02
  4.9272966e+00
 -1.0419682e+00
 -2.9846872e-04
 -7.6142309e-04
 -1.2552768e-03
  3.5046428e-01
 -5.9158653e-02
 -9.1937476e-01
 -8.2663888e-01
 -1.4449077e-03
 -1.9821122e-03
  1.5286729e+00
  1.1053585e-03
 -6.3293558e-01
 -6.8766940e-01
 -1.5671120e+00
  7.9527158e-01
  7.5085682e-01
  1.5121231e+00
 -8.8919193e-02
  1.5434276e-02
 -1.8341985e-02
 -3.4808598e+00
  9.8241431e-01
  4.6718612e-01
 -9.6637070e-02
  1.9673273e-01
  4.5769334e-01
 -4.0301971e-02
 -1.1252365e+00
  1.2691418e+00
  8.1360519e-01
 -7.7381618e-02
  1.2432891e-01
 -4.1816421e-03
 -2.1500325e-01
  2.5009232e+00
  1.3877059e+00
 -2.5816649e-01
  8.3353445e-02
 -2.5263518e-02
  7.8225839e-01
 -4.8576668e-02
  2.3255156e-01
 -6.9967705e-01
  4.1328537e-01
 -5.2733481e-01
 -6.0709673e-01
  4.4502461e-01
 -1.4457015e+00
  2.5756246e-01
  3.6642020e+00
  2.9919114e+00
  5.3793988e+00
  2.4888201e+00
  1.2414607e+00
  4.6452057e-01
 -7.3874450e-01
  3.6406913e-01
  1.9614203e+00
  1.0950415e-03
  2.0802890e-01
 -3.4634969e-01
  6.4906850e-03
  3.2314986e-01
 -1.1189828e+00
  2.7985007e-03
 -3.2452056e+00
  2.9554090e-01
  1.9115790e+00
 -2.3007914e-01
 -2.8220598e-02
 -2.5780935e+00
 -6.8862772e-01
  1.0632423e+00
  1.2450136e-03
 -3.6531917e-06
  5.1105982e-03
  1.4873553e-04
 -4.2643598e-03
  1.0650514e+00
  3.8455743e-01
 -2.5878377e+00
  2.1463590e+00
  4.6668639e-03
 -1.7675687e-01
  5.5027450e-04
 -2.6670325e-01
 -2.1009493e-01
  4.9048483e-01
 -4.1195429e-03
  3.8261616e-01
  1.7864463e+00
 -1.1684552e-03
 -1.1155381e-03
  3.0827990e-01
  1.5691547e-03
  3.0501870e-02
  4.7929263e-01
 -1.4498351e+00
 -1.0727080e+00
  4.7935542e-01
 -1.7000589e+00
  9.9590003e-02
 -1.9204126e-01
 -6.9501852e-03
 -3.8314052e-04
  2.5972244e-03
 -1.6336909e-03
 -1.1361337e-01
 -4.2715162e-04
 -1.3856761e-03
 -4.4912394e-02
 -2.9569805e-01
 -1.0669641e-02
  5.1024932e-02
  1.6136888e-03
  1.7797317e-01
  3.4532270e-01
 -2.3753190e-02
 -5.8807415e-01
  8.4779743e-04
  2.5822887e-02
  3.7878349e-01
  3.5688832e-02
 -2.7485765e-03
  2.5896531e-01
  1.4476347e-01
  2.0861997e-01
  5.4434627e-02
  1.1671031e-01
 -2.0805916e-03
  2.2281012e-01
  7.0721641e-02
  7.1316063e-02
 -1.6758794e-02
  1.5284494e-01
 -2.4696589e-02
  4.2393385e-03
 -3.7650861e-02
  2.7903302e-03
  2.7186763e-01
 -4.2832425e-01
  6.5381796e-04
 -1.1874430e-01
  1.5300593e-02
  1.2171541e-04
 -2.8899910e-02
  4.6223111e-02
 -6.6859253e-02
 -4.6481462e-03
 -1.7750871e-04
  2.9893377e-04
  8.9525349e-02
  1.7358511e-03
 -1.7614114e-01
 -7.5431679e-05
 -1.5386720e-01
  5.9517003e-03
  5.3794001e-04
  7.0663658e-04
 -4.5122419e-02
  2.9003930e-03
  5.0617931e-03
 -3.0683661e-03
 -1.1607426e-02
  1.9523056e-03
 -1.4580144e-03
  2.6836109e-03
 -2.0525223e-03
 -1.3991552e-03
  9.3093449e-03
 -3.2996945e-03
 -3.6521087e-04
 -1.7938964e-03
  2.1017874e-03
 -3.0760313e-04
 -1.1406575e-03
 -9.6792483e-04
 -8.8138944e-03
 -4.4306734e-04
  2.6505187e-03
 -4.8442567e-03
  3.2921056e-03
  2.3401848e-03
 -6.3122679e-03
  7.6474168e-04
  1.7427282e-03
  1.5515732e-03
  1.9592121e-03
  9.3208151e-03
  1.6019661e-03
 -1.1301745e-04
 -3.7282277e-04
 -1.8225678e-03
  1.5104539e-03
  7.8789704e-04
 -1.4692358e-03
 -2.7849324e-04
  1.1528714e-04
  6.3164701e-04
 -1.4507742e-01
  9.7959768e-04
  6.7320466e-04
  2.0710479e-03
 -1.0746152e-03
  3.0023746e-05
 -2.2367178e-03
  4.1457671e-03
  5.3061103e-06
  1.6874243e-03
 -5.2845728e-04
 -6.3912724e-03
 -6.0070604e-05
 -7.5520887e-03
  1.9939934e-04
  4.3757330e-04
 -1.4036672e-01
 -3.2101551e-03
 -4.5329728e-04
  2.3275800e-03
  3.6768613e-03
 -2.9002389e-04
 -2.1435514e-03
  5.3112054e-01
  1.1778510e-03
 -6.3515767e-03
 -1.7479775e-03
  3.6342576e-04
  2.2135284e-03
  2.8881745e-03
  1.2263698e-03
 -6.3605461e-05
 -1.4002145e-03
 -1.3842699e-03
  2.6455864e-03
  9.0990456e-05
 -6.6403637e-04
  2.8685266e-03
 -2.5694040e-03
 -3.3260542e-03
 -7.2336756e-04
  2.4271222e-04
  1.4462970e-03
 -2.3596028e-03
  3.4595915e-04
  3.7884379e-03
  4.2987480e-03
 -8.5811631e-04
 -2.7518135e-03
 -1.6597314e-03
 -2.5602274e-03
 -1.4438746e-03
  4.8258756e-03
 -1.5148058e-03
  1.1941487e-06
 -9.5525273e-04
  2.1645073e-03
  2.5845780e-03
  8.0906862e-04
  1.1615607e+00
 -5.4217708e-01
 -1.1855959e+00
  2.9687510e+00
  6.4128108e-02
  3.9650472e-03
  3.8363534e-01
  1.6210607e-01
  1.2929481e-03
  9.0199834e-01
  1.3077488e+00
 -5.5184191e-01
 -1.1397027e+00
 -3.0113077e-01
  3.7875253e-04
  5.7104939e-01
 -1.4047554e-03
  2.1263173e+00
 -1.9232817e-02
  6.5883678e-01
 -2.7729574e-01
 -6.0076743e-01
  2.9041555e-02
  4.1186417e-04
 -2.1667750e-01
 -1.5947352e-04
 -2.1524364e-03
  3.6436883e-03
 -3.0037169e-03
  4.5603546e-03
 -3.5926605e-05
  1.1845292e-04
 -3.4750617e-01
 -1.4431970e-03
  2.6454935e-03
  8.7555952e-02
  5.9261662e-04
 -7.0297119e-04
  7.0474978e-04
 -3.8975226e-03
 -3.3441026e-04
  3.9531928e-03
  2.7943277e-03
  2.8901713e-04
 -3.8486049e-03
  1.9706042e-04
  6.3385366e-04
 -6.0548005e-03
 -1.4410437e-03
 -7.8805798e-04
  6.5408641e-04
  1.1543597e-03
  4.9574738e-03
 -9.1509987e-04
 -2.2593718e-03
  9.7113938e-05
  4.8657265e-04
 -3.1339555e-04
 -2.2477796e-03
  2.6291625e-03
 -1.2977487e-04
  1.4099155e-03
 -6.4154375e-01
 -6.7834661e-04
 -7.0747192e-04
  1.9777452e+00
 -1.2135705e-03
  3.8528955e-01
  2.0107349e-02
 -1.0326424e+00
 -1.1157909e-03
 -2.2309574e-03
  7.1112096e-05
  7.3350146e-03
  1.3256799e-02
 -1.5703553e-03
  1.1196110e-03
 -3.3110648e-01
  3.2856946e-03
 -4.1689150e-02
  1.2935002e-01
  3.7876406e-04
  8.1644639e-02
  2.2818490e-03
  2.0875497e-01
 -1.1469390e-03
 -2.9051175e-06
 -1.0185791e-03
  8.2112243e-04
 -1.1437533e-03
  5.2512489e-04
 -3.9216739e-04
 -6.9318211e-04
  2.3761464e-03
 -2.6071160e-03
 -1.8672782e-03
 -1.8926973e-03
 -1.0061633e-03
  6.0695637e-04
  1.5754071e-04
 -1.9650434e-03
 -1.0330129e-03
 -2.3721226e-05
  6.1331331e-05
  1.0094587e-03
 -3.9543547e-03
 -5.6779315e-04
  1.8789792e-01
  3.3400264e-03
 -3.2550967e-03
 -1.3899967e-03
 -1.0671417e-03
 -3.0319407e-03
  6.2860684e-03
  2.0949431e-03
 -5.1806954e-04
  2.3419019e-03
 -2.9359965e-04
  1.3113829e-04
 -2.0313603e-03
 -2.2790906e-01
 -5.5681390e-04
 -3.6186573e-01
  6.6574494e-04
 -3.8325317e-05
  2.1505991e-03
  8.5608981e-04
  6.5333134e-01
  6.3980417e-03
 -8.2231760e-03
  2.1424573e-03
 -4.0554022e-04
  6.8820452e-07
 -3.1975851e-05
  6.7214076e-03
 -5.0932133e-01
  2.9401219e-04
  3.0204607e-02
  5.8456045e-04
  3.7544066e-04
  6.2316781e-01
 -4.1082393e-02
  1.6568227e-01
  3.3074970e-04
 -2.5566139e-03
 -1.9763983e-04
  2.7999920e-03
 -3.9391482e-04
  1.5158413e-01
  9.4194349e-04
  1.2371749e-04
  2.6381556e-05
  7.4789790e-04
 -1.6606656e-03
 -4.4970443e-03
 -1.6441330e-03
 -3.3694252e-03
 -1.5538527e+00
  2.4415387e-03
  1.5152589e-03
  1.5601073e-03
  1.7379461e-03
 -7.9536403e-04
  1.4818306e-03
  5.7423714e-04
 -4.1488619e-03
  1.5571462e-03
  1.0273024e-03
 -3.3669805e-03
  7.5941853e-04
  3.4860292e-04
 -2.1613680e-03
 -2.4869663e-03
 -2.9569825e-03
 -1.9363594e-03
  2.7045731e-03
 -2.6226070e-04
 -3.2505405e-04
 -2.6608034e-04
 -1.6431614e-03
 -1.9574655e+00
 -8.5937899e-01
  2.4995999e-02
 -2.8837183e-01
  1.1593487e-01
 -6.7922610e-01
 -1.4329888e+00
  1.2818540e+00
 -4.2994937e-01
  1.5084081e+00
  6.0292298e-01
 -5.2625230e-03
  9.3564039e-01
 -1.9730865e+00
  9.9173817e-04
  9.0892255e-02
 -2.0065784e-01
  8.4258300e-01
 -9.5452434e-01
 -7.2364378e-01
  1.2625403e+00
  1.8012123e+00
  6.6242948e-02
 -1.3283712e-01
  7.9111898e-01
  7.7496998e-02
  1.3996862e-05
  8.8625163e-02
 -2.3652285e-03
  1.2003526e-02
 -1.0897920e-03
  5.3864531e-03
 -1.9284250e-03
  1.3856022e+00
 -2.4689264e-03
  6.9292082e-04
 -2.0225674e-03
 -9.8909903e-04
  3.3750571e-04
 -1.4244459e-03
 -1.7439568e-03
 -2.4183907e-03
 -3.9214254e-03
 -5.7881215e-04
 -4.1842898e-03
 -8.1594130e-03
 -8.7930146e-04
  4.5434418e-04
  4.2278212e-03
  7.7853189e-04
  2.7929510e-03
 -1.0551007e-03
 -1.1433694e-03
  1.2824426e-03
  1.8202199e-03
  5.5887597e-04
  6.4329524e-03
 -1.8515477e-03
  2.3449284e-05
 -3.4235858e-03
  9.8157616e-04
  6.8099783e-03
  2.5983599e-01
 -2.2768203e-02
 -1.2044545e-03
 -7.0633326e-04
 -3.9706286e-03
 -1.6939200e-02
  1.7554985e-02
 -8.3997078e-02
 -2.0332139e-03
  1.0280598e-04
  5.4977913e-03
  9.8243818e-02
  4.4214712e-03
 -5.2086898e-04
  4.2651525e-01
  1.9145856e-02
  8.0782838e-02
  3.6402408e-04
  1.4520550e-02
 -9.5682899e-03
 -3.3476544e-03
  4.1070199e-03
  1.7033320e-02
 -2.1143989e-03
  2.9179596e-03
 -4.4690357e-03
  5.1645166e-03
 -3.9003298e-03
  1.7629408e-03
 -4.7414967e-05
 -8.0107962e-04
  7.6984399e-04
  8.5583562e-04
  1.4548327e-03
  3.1186903e-03
  2.2140557e-03
  1.8708070e-03
 -8.2121539e-04
  2.3786421e-03
 -1.7169237e-03
 -4.4807307e-03
 -2.0509202e-04
  3.3559313e-04
 -2.2750569e-03
  2.4327879e-04
 -5.5625493e-04
  7.4477075e-04
  8.3702710e-04
 -1.0216457e-03
  7.4752216e-04
 -5.5779563e-04
  2.6290368e-03
 -1.1804757e-02
 -1.7413399e-03
  2.6307977e-04
  3.8105380e-03
 -1.6347858e-03
  7.7669154e-04
  4.7382209e-01
  4.6247789e-01
 -2.4456780e-01
 -4.6636605e-01
  1.3299295e+00
 -7.3054695e-04
 -4.8407898e-03
 -8.3928281e-01
 -4.1272047e-01
 -1.0995716e-02
  1.0114158e-04
  1.9069766e-03
  1.0715923e+00
  6.9817372e-02
  1.3950900e-02
  1.8612164e-01
  4.0900338e-04
  2.1316513e-02
 -5.9135159e-04
  1.4794756e-01
 -1.3204547e+00
 -2.0019473e-03
  2.2605915e+00
  3.0800956e-04
 -1.3164096e-01
 -5.5072620e-03
  3.0705135e-03
  1.4844212e-05
 -5.7221443e-04
 -4.3026311e-03
 -1.1695165e-03
 -1.1056699e-03
  1.2635459e-01
 -1.4879960e-03
 -9.1624021e-04
 -1.0376166e-03
  1.1469180e-03
  5.6740399e-02
 -1.9412891e-03
  3.7715979e-02
  4.8073092e-03
 -5.6601019e-04
  7.6541444e-04
 -1.1960655e-03
 -1.0078935e-03
 -9.2405081e-01
 -1.2810305e-03
 -6.1896816e-04
 -4.0616171e-04
 -3.5880876e-04
 -2.3381674e-01
  3.6447437e-04
 -6.8627174e-05
 -9.0175896e-04
  4.9804305e-03
  4.0824767e-04
  2.1085551e-03
 -1.4181258e-03
 -8.4574107e-04
 -3.6282195e-03
 -5.2071822e-01
 -9.6682254e-03
  4.7212899e-01
 -1.3492665e-02
  6.9136270e-03
  1.1910957e-01
  5.0954860e-01
 -4.8177326e-01
 -3.7406273e-02
  6.7891449e-01
  5.0413987e-04
 -2.4585135e-01
 -2.7955249e-01
 -1.7064957e-01
 -9.8715998e-02
 -5.0215945e-03
 -1.6157854e-02
 -1.6098313e-01
 -2.3196898e-02
 -2.0710836e-01
 -4.2254624e-01
  6.5923142e-03
 -5.5290345e-02
 -4.4725062e-03
 -8.5114248e-02
  6.4251060e-03
 -3.1534475e-03
  1.4728120e-03
  3.0150278e-03
  1.0240437e-02
  1.5594838e-03
  3.9493147e-04
 -7.6348492e-04
 -2.2521727e-03
 -2.4682686e-03
  4.6847237e-04
  1.0067581e-03
 -3.3480252e-04
  8.3167583e-04
 -2.2802760e-03
  1.0426512e-03
 -1.3735178e-03
  5.5315089e-03
 -5.4729339e-03
 -5.1518821e-04
 -4.8418809e-04
 -2.6478682e-04
  1.5270950e-03
 -3.2052907e-04
 -1.9378349e-04
 -1.2215204e-03
 -3.6936591e-03
 -1.3178799e-03
 -2.5658794e-03
 -5.4981996e-04
  1.0499413e-03
 -1.9199642e-03
  1.6246757e-03
 -2.2108359e-03
 -1.2291538e-03
  2.7183173e-04
 -1.3832405e-03
  3.9915941e-04
 -6.3067307e-03
  2.9854523e-04
 -3.3591124e-03
  7.0807280e-04
  2.6032401e-04
 -7.0003001e-03
  1.9420277e-02
 -1.5149467e-01
 -1.3776985e-03
 -7.0513887e-03
 -6.0640508e-03
  6.6901695e-05
 -1.4027038e-03
 -3.3780462e-03
 -1.4248197e-02
 -7.3305196e-03
 -3.3294168e-04
  7.6922792e-04
  4.0073530e-03
 -3.6384589e-03
 -2.9491607e-04
  1.1172034e-01
  9.6319255e-04
 -5.4107379e-04
 -2.0287844e-04
  2.1561158e-03
 -1.1133804e-03
  7.5169069e-01
 -9.1666240e-01
  3.2743177e-01
  6.9196229e-03
 -1.1019282e+00
 -6.9978787e-03
 -9.2264712e-02
 -2.4613691e-04
 -9.0801102e-01
  6.6617675e-02
 -1.7795997e-02
  2.8577771e-03
 -1.6099409e+00
 -6.3637567e-01
 -7.1555698e-01
  1.4018163e-02
 -1.9313045e-03
 -1.3234784e-01
 -4.0969267e-03
  4.9591228e-01
  3.4349823e-01
  1.7360821e-01
  3.0839868e-02
 -1.3417080e-03
 -4.6090564e-01
  1.3529243e-05
 -1.2661638e-03
  6.5262839e-03
 -3.9130338e-03
  1.5436374e-02
 -1.0009894e+00
 -3.3099744e+00
 -1.1111877e+00
 -4.5600109e+00
 -1.2393465e+00
 -1.7970601e-01
  5.7359678e-01
  1.4170372e+00
 -1.8013881e-01
 -1.5280584e+00
  2.1840235e-02
 -5.9410896e-02
 -3.3398297e-01
 -5.1023830e-02
 -2.1066482e-01
 -1.5445125e-01
 -9.5060535e-02
 -1.4379240e+00
 -1.3919618e+00
  1.3085225e+00
 -8.0295876e-02
  2.7081013e-01
 -1.5540012e+00
 -4.6122560e-01
 -1.1187148e+00
  3.4248915e-01
 -3.8583479e-03
  5.3959456e-03
 -7.0405245e-01
  2.3032455e-01
 -1.1016324e+00
  1.0530382e+00
  1.7522414e-01
 -9.3132534e-05
 -1.0068034e+00
 -1.4929206e-02
 -2.2659336e-01
  7.8067499e-01
 -1.2789267e+00
  1.9476075e-01
 -1.4414903e+00
  2.1755886e-03
  2.5225539e+00
  9.2245215e-01
 -2.3069448e+00
 -2.1148057e-01
  1.1295490e-02
  2.0069344e+00
 -4.9372429e-01
  9.0080160e-01
 -2.4897474e-01
 -1.1815527e-03
  9.1772145e-01
 -6.9651550e-01
 -2.1131082e-02
  1.0789232e-01
 -2.3736194e-01
 -5.4527406e-04
 -2.0611456e-02
 -1.1580014e-03
 -1.5321729e-01
 -3.3199430e+00
  1.9103329e-01
 -3.1013105e+00
 -7.0611101e-01
 -2.9838614e-03
 -1.3455641e-03
 -1.4260097e+00
 -7.8624326e-01
 -2.9616537e+00
  1.2033847e-02
 -1.2098777e+00
 -1.5016844e+00
 -8.3839586e-03
 -3.4819794e-01
 -4.9160954e-01
 -4.6525223e-04
  8.4837973e-01
 -5.1125062e-01
 -1.8926958e+00
 -1.7846665e-04
 -2.1650015e-01
 -2.7361715e-01
  5.3298479e-04
 -2.9640806e-01
  9.3432404e-02
  1.1766029e-03
 -1.1435952e-04
 -1.8483816e-03
  5.3240347e-01
 -1.5517807e+00
  9.9118179e-01
  2.1038325e+00
  4.7878286e-01
  1.8098959e+00
 -1.3161335e-02
  4.3185237e-01
 -3.0773810e-01
  6.6169374e-02
  1.7493291e-01
  4.1178253e-04
 -1.7423750e-01
 -4.0705961e-01
 -9.9475473e-02
  1.7122111e-03
  1.4764022e+00
 -3.3277862e-03
 -4.1806173e+00
 -2.5545087e-01
  6.9721526e-01
 -5.5459997e-04
 -9.8173730e-02
  2.8127404e-03
 -2.9452376e-03
  6.2395036e-01
  1.5193399e-02
 -1.4914910e-04
  3.7910955e-03
 -1.5413465e-03
  5.5374809e-02
 -4.0281340e-03
 -5.6701181e-03
  2.0387178e-02
  2.2022282e-04
  1.5578888e-02
 -1.6690519e-03
  3.5778738e-03
 -1.7446697e-01
 -2.5189477e-01
  5.0511652e-01
 -4.0494945e-04
  2.4477735e+00
 -6.0279410e-02
 -1.5841384e-03
 -1.2515164e-03
 -9.9097646e-04
  6.4209259e-01
 -1.5058618e-02
 -4.1446395e-02
 -7.7814162e-02
 -3.2925007e-01
  3.4747943e-03
 -9.7583613e-04
 -1.4404152e-02
  1.9517856e+00
  2.1412431e-03
 -1.5342076e-03
  2.8141092e-03
  1.4799814e+00
  3.0731694e-03
 -1.4590195e-04
  1.2443246e-03
 -4.7771295e-04
  7.1253586e-01
  1.0693303e-02
 -1.2503085e-03
  2.9109800e-03
 -3.2031903e-04
  1.8521951e-03
  3.8685137e-03
  3.6280847e-03
  3.3332722e-03
 -1.9998385e-03
 -1.5126616e-03
 -3.5229679e-02
 -6.7964691e-04
  2.5366916e-04
  1.6633646e-03
 -7.4194819e-03
  2.5335390e-03
  6.7507039e-04
  2.4809809e-03
  6.8587963e-03
  3.2984912e-03
  9.2316826e-04
 -4.2432146e-03
 -1.0991312e-03
 -2.7176028e-03
 -2.7895526e-03
  4.1272356e-03
  2.2185207e-03
  3.9626608e-04
 -9.4270697e-03
 -7.2803455e-03
 -1.1250834e-02
  4.1914405e-03
 -3.2059422e-03
 -1.7946315e-03
  1.4348089e-04
 -2.0707877e-02
 -4.6875230e-03
  4.4262379e-06
  4.5202639e-02
  8.0958540e-03
  6.2184210e-04
  7.3170900e-02
 -3.3790755e-04
  2.0144184e-03
  1.3341306e-02
  2.3997594e-03
  3.8419232e-05
  7.0580290e-07
  6.1181514e-03
 -2.4537416e-04
 -1.4009123e-03
 -1.2182971e-03
  1.5518963e-01
 -4.9177120e-03
  4.3907156e-03
 -2.8277298e-03
  6.7990541e-01
 -1.3002155e+00
  8.4947985e-01
 -5.8609891e-01
 -3.2237825e-01
 -1.3545048e-01
  9.7726006e-04
 -3.7565774e-01
 -4.3202071e-03
 -1.2559213e-01
 -2.4257475e-03
  2.6269704e-01
 -2.8869853e-04
  1.1324898e+00
  8.9540547e-01
 -3.9584350e-02
  1.1315123e-03
  8.6273652e-01
  1.2241238e-03
  5.1387119e-01
 -4.2308154e-04
  9.8025845e-04
  5.7968086e-01
 -6.6220462e-01
 -3.7423441e-01
 -6.0138303e-01
  1.5053238e-01
  3.2434925e-01
 -1.4579474e-04
  1.4255505e+00
  1.5305756e+00
  1.0220430e+00
  1.4088416e+00
  7.2705787e-01
  3.9065322e-01
 -2.2551416e-01
  2.1724609e-01
 -1.0338116e+00
  8.1396043e-02
  6.3151550e-01
  1.4661781e-01
  4.2002481e-01
  1.4032809e-01
 -1.1652689e+00
  1.1776098e+00
  7.6486492e-01
 -1.1044957e-03
  1.1641822e+00
 -3.0599332e-01
 -7.0990759e-01
  9.2434153e-02
 -2.7545723e-01
 -1.3032191e+00
 -2.1271863e+00
 -2.4468257e+00
 -2.1072352e+00
 -1.1133367e+00
 -5.7110590e-01
 -3.0180135e-01
  2.6883295e+00
  3.0460358e-03
  5.4589683e-01
  9.4188017e-01
  4.2069471e-01
 -3.6208723e-03
 -6.9237679e-01
 -3.6260898e+00
 -8.7202358e-01
  1.4043006e+00
 -4.3845859e-01
  1.4956243e-03
 -1.3813936e-03
 -1.2674229e-03
 -4.3208380e+00
  5.0640488e+00
 -2.1627057e+00
 -1.5490428e-03
 -3.2634239e+00
 -3.4092106e-03
  1.0037220e-03
 -4.1258289e-03
  2.3031791e-04
  1.4108323e+00
 -1.2204486e+00
 -2.0061085e-01
  1.2642841e-01
  1.1075837e-01
 -1.0449095e-03
 -1.6094651e-03
 -6.2587821e-01
 -5.6208996e-03
  1.5978669e+00
  3.1521869e-01
 -8.6243635e-01
  3.9475812e-03
 -1.2957925e+00
  7.3231282e-03
  3.9286721e-03
 -9.2936128e-02
 -5.9822828e-01
 -2.1348426e+00
  1.8639276e+00
 -1.6257954e+00
  1.1931868e+00
 -1.3484830e+00
 -1.3865970e-01
 -1.2099682e-02
 -2.3118061e-01
 -2.3072669e-03
 -7.8121769e-01
  4.8850856e+00
  1.7754101e+00
  1.8342280e-01
 -1.5372860e+00
  3.2323441e-01
 -1.9792105e-05
 -5.1299244e-01
  3.3067695e-03
  1.4700928e-01
 -1.3226607e-02
  2.5131914e-01
 -8.2028967e-01
  1.1897330e+00
  1.8097687e+00
  1.1091343e-03
 -4.2246014e-01
  2.5002034e-02
 -4.7011307e-01
 -8.1705615e-02
 -4.5609519e-01
 -1.3957022e+00
  3.6796352e-01
 -1.2077807e-01
  5.9632822e-03
 -1.0844903e+00
  1.5895917e-03
 -1.1293248e+00
 -1.1772707e+00
  5.8202916e-01
  4.4700408e-01
 -3.8176519e-01
  1.2495027e-01
 -3.8736943e-02
  3.1494014e+00
  3.1265344e-02
  2.7329784e-02
  5.4424286e-01
  9.8633653e-01
 -2.4028702e+00
 -3.4709084e-01
  3.0579941e+00
 -9.9930458e-04
  3.8729197e-01
 -4.4061225e-03
 -1.1364659e-03
 -8.5731089e-02
  4.6329987e-03
  5.1391757e-01
 -2.1096413e+00
  2.9673409e-02
  8.2583044e-04
  1.7321328e-02
  1.4082748e-03
  2.8076932e-01
 -1.9151229e+00
  5.5044371e-04
  1.1295189e-01
 -1.0401740e+00
  4.8071301e-01
  1.5587128e-02
 -1.7254058e+00
  4.2315377e-03
 -1.0775079e-01
 -8.1911302e-01
  1.0410534e+00
 -6.0149533e-01
  3.2912919e-01
  1.9897903e+00
  2.3380136e-04
  2.0309329e-02
 -1.7851777e-03
  7.9180539e-01
 -2.7532218e+00
  4.7800057e-03
  4.1629405e+00
 -3.6277425e+00
  2.4986395e-01
 -5.2489538e-04
  1.3854608e-01
 -6.7874172e-04
  2.7544591e+00
 -1.3235912e+00
  6.3538112e-02
  1.8016523e+00
 -1.2838928e+00
  1.6051778e+00
  2.0413509e-02
 -8.1942528e-01
  7.4028084e-03
  9.5334321e-02
 -7.2488660e-01
 -3.7479372e-04
 -6.7396098e-01
 -6.7908710e-01
  1.2838039e+00
  2.9429978e-02
  1.1454751e-01
  1.1743006e-04
  2.6072854e-02
 -1.5160237e-01
 -2.0455729e-02
  1.9342678e+00
  1.3257995e+00
  5.4615992e-01
  1.6831724e-02
  1.2937053e-01
 -1.4820211e-03
 -4.7039992e-01
 -7.5855547e-01
  2.3452574e-01
  2.4498215e+00
  1.2286150e+00
  1.4763078e-01
 -2.6904339e-01
  1.6414573e+00
  1.6786552e-03
  1.8032535e+00
 -1.3158907e-02
 -3.1800547e-01
  5.5675340e+00
 -9.5796883e-01
  1.7620685e+00
  1.4598931e-02
 -3.8563623e+00
  2.6183140e-03
 -8.5156119e-01
  3.8097757e-01
 -1.5763825e-01
  8.7310433e-01
  2.7287064e+00
  3.8033417e-01
  1.6909617e+00
 -5.0070930e-02
 -1.5562604e-04
 -4.9114381e-03
  2.4012597e+00
  2.1378119e-01
 -3.6770925e-01
 -2.9328728e+00
  6.2751941e-02
  8.3899172e-03
 -8.3769172e-02
 -1.2686434e-03
 -7.5701672e-01
  6.8894349e-02
  1.5933768e+00
 -9.7838193e-01
 -1.3405737e+00
  5.1571643e-01
  4.6417385e-01
 -1.8017253e+00
  9.6300471e-05
 -5.9314775e-01
  1.0385569e+00
 -2.5280600e+00
  3.2021662e-03
  1.1979538e+00
  1.6772234e+00
 -1.8575116e+00
 -3.7595594e-01
  1.5418080e-03
  1.9124140e-03
 -2.9474845e+00
 -1.1073068e+00
 -7.8719034e-04
  6.6884530e-01
  4.1947466e-01
 -2.0810264e-01
 -2.1812547e-02
 -1.1492820e+00
 -2.4540089e-01
  5.9767354e-01
 -7.9369217e-01
 -7.5465399e-01
 -7.9645741e-01
  1.7120562e+00
  7.6423126e-01
 -6.4181215e-01
 -5.0678253e-01
 -1.4896725e+00
  8.5672371e-02
  5.3826350e-01
 -5.4052913e-01
 -2.2691159e-01
  2.9745898e+00
  1.0740619e-01
  1.3846860e+00
  3.5517660e-03
 -4.6759450e-01
 -6.5866983e-01
 -2.8042326e+00
 -8.7132910e-04
  3.2340989e+00
 -7.7685029e-03
 -1.2345977e+00
  1.5962033e+00
  1.2373046e+00
  1.6123580e+00
 -1.1475701e+00
  1.1977709e-01
 -9.0929472e-01
 -1.0086423e+00
 -8.4629881e-01
 -3.8517460e-02
  2.7144215e+00
 -2.1639490e-03
  1.5639572e-04
  5.2151969e-03
 -6.2891509e-04
  1.8755839e-03
 -2.4833291e+00
  9.7662908e-01
  2.9361203e+00
 -6.4750117e-01
 -1.9739477e-03
  8.7050730e-03
 -3.3263977e+00
 -1.0717357e+00
  4.6257991e-01
  3.1290638e+00
 -5.8416682e-01
  4.8721135e-02
 -9.6980411e-01
 -1.7311839e+00
  1.2286593e+00
  7.6744062e-01
  4.1681778e-01
  7.4423194e-01
 -1.6368225e+00
  1.9317098e+00
 -8.5384989e-01
  5.9941071e-01
 -1.0001038e+00
  2.8720903e-03
  5.0074130e-01
 -3.0662063e-01
  2.1085198e+00
 -2.2139733e-01
  3.2548578e+00
 -7.9003447e-01
 -2.2522492e+00
  9.8354521e-04
  5.5969458e-02
  1.9721534e+00
  7.0983259e-04
  1.6725524e-01
 -1.2603078e+00
  1.5575023e-01
  4.9797070e-01
 -1.3034556e+00
  1.2277932e+00
  4.8432717e-01
  1.5054824e+00
  1.4964253e+00
  1.4724326e+00
 -7.5591207e-01
  6.3364571e-01
 -3.9101082e-01
 -9.2735404e-01
 -2.1399853e+00
  1.0697699e+00
  5.0767863e-01
  4.6827924e-01
  4.3016583e-01
  1.4191173e+00
  2.4364696e+00
 -2.0262020e+00
  3.3060789e+00
 -2.4156831e-01
  9.8227061e-02
  2.4355532e-01
  7.1378844e-04
  1.7389840e-01
 -2.9635549e-01
  8.1181318e-02
  1.7325524e+00
 -1.5721018e+00
  4.7537211e-02
 -2.2714152e+00
 -7.2758123e-02
 -6.2322086e-01
  4.1946504e-01
 -1.6338365e+00
  1.5709779e+00
  2.7765358e-02
  8.7390689e-04
  1.7510753e-03
 -1.4236972e+00
  3.8532047e+00
 -6.6430116e-01
 -1.8860815e-01
 -8.2254207e-01
  3.6744226e-02
  7.3800044e-04
  1.0067083e+00
  8.3417085e-04
 -3.5750742e+00
  6.1709810e-02
 -6.5799290e-04
  1.6045696e-01
 -2.4664502e+00
  4.8863617e-01
  1.4244653e+00
 -9.9324846e-01
 -1.5528444e+00
  3.3162284e-01
  1.1634052e+00
 -3.3018073e-01
 -2.6162555e+00
  8.2920182e-01
  1.3567250e+00
  5.4583699e-01
 -3.0523229e-02
  7.3662302e-03
 -3.5109394e+00
  2.9691467e+00
 -4.8183460e+00
 -2.2020505e-01
 -1.3988084e+00
  2.8462553e-01
  5.2051789e-01
  3.0421510e-03
  2.4118794e-03
 -3.5870713e-01
 -7.0089954e-01
 -4.7398686e+00
  2.0940176e-01
 -3.1406802e-01
 -6.0834819e-01
 -1.7488194e-01
  1.2370111e+00
 -2.9295969e-01
 -1.5658919e+00
 -1.6039779e+00
 -5.2639508e-01
 -7.9852469e-02
  2.5450289e+00
  1.3060437e+00
  1.4462039e+00
  4.6424782e-01
  6.1113721e-01
 -4.4711992e-01
 -2.5457840e+00
 -1.8728266e+00
  4.8290113e-01
 -7.5683773e-01
  8.5046196e-01
  3.9719698e-01
 -1.2744043e+00
  1.7733349e-01
  1.7257044e+00
  1.4812680e+00
  6.8620694e-01
  1.4641283e-01
  9.3990475e-01
  1.0907887e+00
  1.7277218e-03
  8.3710444e-01
 -4.1463536e-01
  1.0995684e+00
  6.1783183e-01
  2.2478549e+00
  4.0658471e-01
 -9.8923540e-01
  7.2399108e-04
  1.2054806e-04
 -2.2667060e-03
  3.1617095e-03
 -7.8617275e-05
 -2.3318675e+00
  4.4790888e-01
  3.4582005e-03
  4.1442767e-01
  1.9260497e-03
  6.1053596e-04
  4.8763409e-01
 -2.9796621e-01
 -1.1471219e+00
 -1.1516110e+00
  1.7200486e-01
  8.5238439e-01
  9.6253283e-02
  1.0367446e-03
 -1.9883760e-03
 -9.0362316e-01
 -2.9143826e-03
 -1.6710219e+00
 -3.1554563e+00
  1.5263896e-01
  2.7231660e-01
 -9.4545501e-01
 -9.5171522e-04
 -9.6491352e-03
  1.8476311e-02
 -1.0513561e-01
 -5.8404374e-01
 -6.8465024e-01
 -1.3576237e+00
  4.3683696e-01
  2.8177783e-01
  4.7024537e-04
  2.1826512e-04
  5.6923211e-01
 -7.7431774e-01
  3.1753714e+00
  1.7645549e+00
  1.3960356e+00
 -2.2174520e+00
  1.5325798e-01
  8.0382230e-04
  3.4272490e-04
 -1.4638278e-02
 -1.3364131e-03
  2.3322225e-01
 -3.5961345e-01
 -1.0538284e+00
 -6.9701870e-04
 -6.9078064e-01
  5.2883998e-03
 -4.0426846e-03
  8.7730658e-01
 -1.1634212e-01
 -2.5611453e+00
 -9.7808439e-01
  1.2981522e+00
  1.1543751e+00
  4.7278216e-01
  1.8552564e-02
 -4.4494341e-03
 -4.8344105e-01
 -2.7318492e-03
 -1.0947208e+00
 -4.7427779e-01
 -2.2698455e+00
 -3.2039419e-01
  5.2393854e-01
  9.2581479e-04
  3.9425680e-01
 -8.0600572e-01
  4.9886736e-01
 -9.6482652e-01
  1.7251468e-01
 -5.3777939e-01
 -9.5114863e-01
  1.0208160e-01
 -5.4599368e-04
 -3.1847126e-04
 -2.8784272e-01
 -2.4738859e-03
 -3.1451124e-01
  1.9921799e-01
 -8.3090800e-01
  3.0293977e-03
  2.3959967e-05
  1.5844197e-03
  3.0307573e-01
  5.9859204e-04
 -4.8629048e-01
 -3.7216673e+00
  1.2285467e+00
  2.7806246e+00
 -5.8643711e-01
  2.2334573e+00
 -1.6307404e-03
 -1.3126047e-01
 -1.0426923e+00
  1.5962206e+00
  1.0072803e+00
  1.6946434e+00
 -2.0261273e+00
 -4.4287788e-03
  9.6613514e-01
  5.7292907e-03
  1.1702680e-01
  9.5902748e-02
  3.1010774e-01
  1.1416082e+00
  3.8708341e-01
  7.5799429e-01
 -1.3314356e-02
  1.9335380e-02
  8.1987836e-04
  5.8980640e-03
 -7.0684546e-01
 -3.4153429e-03
  8.4851509e-01
 -4.5186374e-01
  1.9583856e+00
 -5.1358074e-01
  2.4087207e+00
 -2.4093536e-03
  1.2933105e-03
  5.9004992e-02
  3.9260253e-01
  1.4442625e+00
 -1.7483346e+00
 -4.8467660e-01
 -1.0808152e-03
 -1.5175172e+00
 -7.6202082e-04
  1.5999112e-01
  1.1617904e+00
 -2.3667845e-03
 -2.5622126e-01
  1.9632322e-01
  7.9503495e-01
 -5.1707399e-01
  6.9474125e-01
 -6.4423104e-04
 -1.0892057e-03
 -2.4410971e-01
  8.3059192e-02
 -1.0275996e+00
 -7.5788999e-01
 -1.9633423e+00
  6.4880596e-03
  7.1776174e-02
 -6.8004715e-04
  8.7585807e-01
 -4.0235528e-01
 -1.2952247e+00
  1.9105706e-01
 -4.2677623e-01
 -8.7407666e-01
  8.4413850e-01
  5.9987354e-01
  1.8461350e-01
 -2.6145097e-04
  1.1979499e-04
  1.7917339e-03
 -6.7638570e-01
 -6.3933343e-01
 -8.8446909e-01
  2.0043193e-03
  5.2980870e-01
 -2.3701300e-03
  7.0132738e-01
  4.7297192e-01
 -1.8962109e+00
  3.2994294e+00
 -1.4207354e-01
 -3.6031799e+00
 -1.5504932e-01
 -2.1812201e-01
 -2.6620715e+00
  1.7949406e-03
 -9.8572624e-01
 -7.8002864e-01
 -2.1089409e-01
  7.7553576e-01
 -1.2729133e+00
 -3.9803484e-03
 -2.6812914e-01
 -4.4360722e-04
  5.0090379e-01
  6.5781701e-01
 -3.3774152e-01
 -1.4192574e+00
 -5.8535244e-02
 -2.1123638e+00
 -1.8723403e-03
  1.4900218e+00
 -1.7727697e+00
  4.5017302e-02
  3.9924234e-01
 -2.5410428e+00
 -2.5499988e-01
  7.6621793e-02
  1.8641360e-01
 -4.8689908e-01
 -9.2757416e-01
 -1.8507057e-03
  1.6586144e-01
 -7.8567094e-01
 -3.2132529e-02
  1.9180546e+00
  1.8608907e+00
 -6.4546818e-01
  1.8580557e-03
  8.1868911e-01
 -1.7921042e+00
  5.1654714e-01
 -1.3674469e-01
 -4.1162232e-01
  7.8957761e-03
  1.7655078e+00
 -9.1692019e-01
 -7.1523291e-01
  6.6429603e-01
 -1.2969849e-01
  1.1437581e-01
  4.4073117e-01
 -5.4036367e-01
 -3.1538397e-01
  6.1725360e-01
 -7.4345249e-01
  4.9034268e-02
  2.4718255e-02
 -1.6559328e+00
 -1.9588544e-04
  2.4320558e-01
  2.1905907e-04
  5.8696353e-01
 -1.5044792e+00
  1.3947304e-01
 -5.1904451e-02
  5.3525913e-01
  1.7620643e+00
  1.3658161e-03
 -3.4210437e-03
 -1.1148390e-04
 -1.7422023e-01
 -4.8614985e-01
 -4.2062101e-01
  1.6216546e-03
  2.5813344e+00
  3.2556646e-03
 -1.0608137e-03
  4.4091633e-01
  7.8425407e-03
 -7.3106092e-01
 -2.3467758e-01
  3.3619373e+00
  1.0152765e-01
 -4.0333371e+00
  1.6768218e+00
  2.3001898e-04
  5.8983336e-03
 -3.0056469e-03
 -8.4528017e-01
 -5.8212554e-01
  2.4099189e-01
  1.0659280e-03
 -4.5220628e-01
  1.5468064e-03
  6.5127271e-04
 -1.4715253e-04
  1.7285406e-03
 -1.1758215e+00
 -4.6871278e-01
 -8.0093694e-01
  1.9793165e-01
 -4.6061552e-01
  1.3787024e+00
  5.2444387e-04
  9.2533875e-01
 -2.4466314e-03
  4.7502679e-01
  1.1122562e+00
  5.5462134e-01
  2.4109995e-01
  1.5583974e+00
 -5.7592324e-04
  2.3267358e-04
 -3.4855917e-04
  1.6692195e-02
 -2.7017769e-01
 -1.3742692e+00
  8.8130116e-01
  6.0741683e-03
 -1.3244615e+00
  1.3332384e+00
 -2.9895273e-01
  4.1767138e-01
 -6.3059584e-04
 -9.1597751e-02
 -1.2081655e+00
 -7.3367435e-01
 -2.3311219e-01
  3.1547588e-01
  2.0459211e-02
  3.1537769e-04
  9.5386565e-01
  2.1393816e-03
 -4.1172004e-01
 -5.5358708e-02
  3.9070854e-01
 -1.7436744e-01
 -8.8481361e-01
  6.6557693e-01
 -1.9519944e-03
 -1.5690484e-03
  1.3495719e-03
  1.3713793e+00
 -3.2098311e-01
  8.1438446e-01
 -5.5458826e-01
  2.8553867e-01
 -1.9883839e+00
  8.3328213e-04
 -4.9530866e-04
  4.4943760e-03
  2.1851116e-03
 -8.5481554e-02
 -1.5119116e+00
  1.0137132e-03
 -2.3210122e-01
 -5.6526903e-04
 -1.3013502e-03
 -1.3268364e-03
 -1.1628749e-02
 -1.5848055e+00
 -1.6299127e-01
  1.1554708e+00
  9.0091769e-03
 -3.3723683e+00
 -2.3115883e+00
  2.5868951e-04
 -6.5666400e-03
  2.3828251e-03
  3.9691323e-01
  1.1591838e-01
  4.3791810e-01
  8.8141439e-03
 -6.5316057e-01
 -4.3895860e-05
 -4.3856963e-03
  2.2391421e-03
 -4.5701399e-02
  1.7400124e+00
  6.7827559e-01
 -1.9376755e+00
 -1.3863873e-02
 -1.2054135e+00
 -1.7044204e+00
 -6.7440343e-01
 -7.9204598e-03
  1.1750469e-03
  7.0943570e-01
  5.4766810e-01
 -3.9072204e-01
  7.3087966e-01
 -2.8925663e-01
 -3.2256816e-03
 -6.2185628e-03
  1.4844951e-02
 -3.9068494e-02
  2.0394793e+00
 -7.8580022e-01
  1.2617500e-01
 -2.9430049e-02
 -5.9653074e-01
 -1.1766496e+00
  7.4788759e-04
  1.4423776e-03
 -5.3952198e-04
  1.6544856e-01
 -3.7108594e-01
 -1.6351141e+00
 -5.5656552e-01
  1.3072020e-01
 -1.4983617e-01
  5.3958519e-04
 -1.4143323e+00
 -6.7601074e-04
 -5.9050405e-01
 -6.3892126e-01
 -2.6046302e+00
 -2.8262824e-01
 -1.2604116e+00
 -8.3858526e-01
  9.5236134e-03
  9.5236134e-03
  9.5236134e-03
  9.5236134e-03
  9.5236134e-03
  1.5106885e-01
  1.5106885e-01
  1.5106885e-01
  1.5106885e-01
  1.5106885e-01
  6.1389327e-02
  6.1389327e-02
  6.1389327e-02
  6.1389327e-02
  6.1389327e-02
  3.2737121e-02
  3.2737121e-02
  3.2737121e-02
  3.2737121e-02
  3.2737121e-02
  1.4183844e-02
  1.4183844e-02
  1.4183844e-02
  1.4183844e-02
  1.4183844e-02
  5.8645893e-02
  5.8645893e-02
  5.8645893e-02
  5.8645893e-02
  5.8645893e-02
